{
    "conv_filter":[
        [
            [
                -0.3167408758399286,
                -1.8442572919995093,
                0.4010184488159263
            ],
            [
                0.5034245669704075,
                -0.2754516512489085,
                0.005236109205398615
            ],
            [
                0.2709649838148909,
                1.789231904273997,
                -0.09947101144298127
            ]
        ],
        [
            [
                0.7534437822926411,
                -0.6245234166881892,
                -0.7612682228244143
            ],
            [
                0.8159227722151923,
                0.7196147923398876,
                -1.7036438760858699
            ],
            [
                -0.6418423263381074,
                0.4255707671424833,
                0.4342014646592153
            ]
        ],
        [
            [
                0.4116852443152184,
                0.554951622398111,
                -0.4342754703958417
            ],
            [
                -0.9380905164437859,
                -1.1108795526525443,
                0.6794600685764326
            ],
            [
                0.4251637808227105,
                -0.4784280840358551,
                0.27981575010075804
            ]
        ],
        [
            [
                -1.5088500734613253,
                1.736857767382749,
                0.94113652061503
            ],
            [
                0.655507446099531,
                0.07138016216595851,
                -0.5551896180151585
            ],
            [
                1.3738634608110747,
                -1.9962780517588448,
                -0.44588262317563365
            ]
        ],
        [
            [
                0.802486648656219,
                1.279421375399762,
                -1.0465823497097113
            ],
            [
                0.05578242005627745,
                0.40144861010812466,
                0.7085720164512065
            ],
            [
                -0.2894011604521371,
                -1.8105015801733766,
                0.6361565346575845
            ]
        ],
        [
            [
                -1.7476536900137092,
                0.05367754528930394,
                1.0568745657267893
            ],
            [
                -0.3386207425523719,
                0.05468579372056774,
                0.3909327793873419
            ],
            [
                1.1757949900189522,
                0.21268863724455378,
                -0.7654599926961797
            ]
        ],
        [
            [
                0.7230164644133469,
                -0.21828695036972026,
                -0.33829263959190475
            ],
            [
                0.27219007782280275,
                1.3337813152137687,
                0.6366747103506568
            ],
            [
                -0.890901993294291,
                0.28345517671353027,
                0.64585217539209
            ]
        ],
        [
            [
                -1.082927955322742,
                0.5810090228832306,
                0.4797786315178722
            ],
            [
                0.09904984557905919,
                1.1109205059039737,
                -0.21121195868736287
            ],
            [
                0.3917097827196358,
                0.184355413421091,
                -0.5208972847674668
            ]
        ]
    ],
    "soft_bias":[
        6.140557158024854,
        -0.14277212469078393,
        -0.33498261932098705,
        0.06837926935973208,
        -0.18168245850212184,
        -0.343726155498742,
        -0.019286111364736517,
        -0.6821781413044786,
        -0.805924006827795,
        0.7563268680719196,
        -0.17013240019762987,
        -1.0007986934794215,
        -0.9305164843364906,
        -0.010157183709917835,
        -0.765374579402908,
        -0.7506410553040549,
        -0.8270912815164372
    ],
    "soft_weight":[
        [
            0.38031266793397706,
            0.16949217723296267,
            -0.024859180709015483,
            -0.3161757248813286,
            -0.14020737352532261,
            -0.05574569296411713,
            -0.24866837585590298,
            -0.15978541663457044,
            -0.1351769349965216,
            -0.12844349616290018,
            0.08694245430192009,
            -0.0877555901922418,
            0.1498176250015532,
            0.4485157490223634,
            0.3569809144039478,
            -0.18760387400216103,
            -0.10561676641105448
        ],
        [
            0.06232979665789418,
            -0.14368530414116706,
            -0.08860532116275949,
            -0.01310825755739474,
            0.15268687150505547,
            0.20668330563427928,
            0.004424851185671682,
            0.09920051244623,
            0.09060211173339167,
            -0.04079643443155785,
            -0.2925846627343933,
            -0.07221142890725396,
            -0.15256777509944053,
            0.035238397438549875,
            0.1431823094020787,
            0.03714018752768314,
            -0.031420762442958924
        ],
        [
            0.251793545201597,
            0.22735499383246396,
            0.12272614562921341,
            0.12013679972829103,
            -0.24406737005381499,
            0.04223934132154895,
            -0.19696117723608814,
            0.007390451719668138,
            0.09602623192250208,
            -0.06514565619655785,
            0.0314919111310725,
            -0.020099815246017828,
            -0.14425819063574075,
            -0.020165605970789476,
            -0.07919486738336605,
            -0.025112433275260825,
            -0.09898793939918855
        ],
        [
            -0.3936566871416683,
            -0.04361866827711475,
            -0.2951390369931201,
            0.24752761659934766,
            0.2570714291611781,
            0.1775858533695579,
            0.21572225279012291,
            0.06783616757793698,
            0.12918119153962568,
            -0.007453640779664845,
            -0.05986614343419015,
            0.032361214640781934,
            -0.16525168118382189,
            -0.09127053749811623,
            0.01979948027827189,
            0.042267828481681716,
            -0.13428784224193993
        ],
        [
            -0.13359566192021663,
            0.10441691719773137,
            -0.11583376223701562,
            0.06113619037777964,
            0.07398217444509754,
            0.09300643128804582,
            0.1568983230532434,
            -0.021093507439608788,
            0.07512338918677115,
            0.35846859318878865,
            -0.2584566897660582,
            -0.0973030125669339,
            -0.1340951730975898,
            -0.21034748395604927,
            0.015359099046701259,
            0.06297866958977696,
            -0.03304359779950851
        ],
        [
            0.061668744063237434,
            -0.06648812596462363,
            0.18172635168805198,
            0.09812589264439454,
            -0.12346511910667529,
            -0.17260548860128197,
            -0.19663174450261858,
            -0.1818417298851296,
            -0.018315719635855234,
            0.009455126729067204,
            0.1060944580772264,
            0.1732304397558885,
            -0.03410927961337615,
            0.16488663838860138,
            0.06193697506613523,
            -0.014639984228839855,
            -0.05313054738855242
        ],
        [
            0.09017884576331349,
            0.08531199152026898,
            -0.12893573074813444,
            -0.04776719755845628,
            0.1033512807155434,
            -0.0820174035086169,
            0.13951513088437975,
            -0.07390602949379739,
            -0.0028721485147921674,
            0.2417540217607408,
            -0.24385837691857354,
            0.14330879670567906,
            -0.09467545135761321,
            -0.14656470673960217,
            -0.09352198343421088,
            0.13290706777855718,
            -0.016344810104772317
        ],
        [
            -0.13438521315019625,
            -0.044979467116948994,
            -0.06911930934289297,
            0.07683532022923566,
            0.1779624082982914,
            -0.10025402827818011,
            0.06674269233982963,
            -0.0031208859860088634,
            0.13459947983994236,
            0.05914022614453595,
            -0.17854534414072346,
            0.13756647423778243,
            -0.008527298832909161,
            -0.19905119492905385,
            0.08958343215594597,
            0.11554252856224367,
            -0.12310466170549454
        ],
        [
            0.14845737337714843,
            0.05632678893975477,
            -0.13775605907926,
            -0.20778827919183018,
            -0.18224367260541807,
            -0.08981177806791046,
            0.1568354065568356,
            0.19724564396785219,
            0.043801022187390196,
            -0.04468683554046283,
            -0.09129072563388983,
            -0.03743921652627607,
            -0.017249379687914606,
            0.24886135077962926,
            0.3394349051435287,
            -0.023324817529929417,
            -0.3621107952084242
        ],
        [
            -0.10451603261221086,
            0.07938389557956163,
            -0.09206175776947774,
            0.0702616747224594,
            -0.06111283017058315,
            0.17951595661033423,
            -0.07562181876431998,
            0.10292015960220663,
            0.04507323938125727,
            0.09593403359028178,
            -0.17769264893576767,
            0.14236553313151515,
            -0.09269258661000468,
            -0.07108212388792176,
            0.13286955680033397,
            -0.08667195798299367,
            -0.08877171281141483
        ],
        [
            0.08351862740826092,
            0.08844266072038048,
            -0.008742259234615047,
            0.11772609850762067,
            -0.00021044294977258643,
            0.043186411435670174,
            -0.1368026271031742,
            0.00989051770119106,
            0.029276109335320176,
            -0.15404069273314186,
            0.3283831669429966,
            -0.09863781511889962,
            -0.17172856958675398,
            0.038908151490508316,
            -0.027361304765501894,
            -0.08080004436104926,
            -0.05647623338472305
        ],
        [
            -0.3098318663992629,
            0.007173204646646585,
            -0.056329839984486596,
            0.40286469823281834,
            0.12753752164318177,
            -0.019949399412178933,
            0.1209847511059301,
            0.06056773604746669,
            -0.09233402584814879,
            0.020676468056706792,
            -0.12001418929088438,
            0.15623193198867796,
            -0.06951425435246941,
            -0.11570602185012287,
            -0.1206356697432919,
            0.21613897127761558,
            -0.20766881615112256
        ],
        [
            -0.2741373752396143,
            0.20645018709885754,
            -0.2714897083335847,
            0.11049076086031481,
            0.07860689160759585,
            -0.09426534940580097,
            0.09779087813048772,
            0.05151654050952415,
            0.05040997509258385,
            0.05944528584495521,
            0.1088124181804175,
            -0.004486570591801767,
            -0.07176767081319547,
            -0.1375734656361842,
            0.01844782943289563,
            0.07428398500060236,
            -0.0035401770641751355
        ],
        [
            0.1531581775572257,
            0.07395329327623723,
            0.038352050444649226,
            -0.1755579875147295,
            -0.03362998885953877,
            -0.026333284331275974,
            -0.12860456136538473,
            -0.03892713266713097,
            0.06540480249590401,
            -0.13312133560300426,
            0.30147297571546516,
            -0.09312260340993687,
            -0.07748039943599122,
            0.22579853281288287,
            0.07500645828375459,
            -0.1336604289797368,
            -0.0983010179729202
        ],
        [
            0.025027576228953345,
            0.06935415146859011,
            -0.12916070041006764,
            -0.038924562687106826,
            -0.009088116395133284,
            -0.016704330256813556,
            0.1760189320420723,
            -0.06569865738085762,
            0.050223714722939655,
            0.04412796137076735,
            -0.10818393647989466,
            0.10358383176630859,
            -0.040528247974252515,
            -0.1308852305022921,
            -0.044635921987821306,
            0.01660018773051165,
            0.10013110855188626
        ],
        [
            0.02484950673106792,
            -0.053739172375677734,
            -0.04219658655967707,
            -0.008048245602096986,
            -0.025158632111636377,
            0.046743627715514866,
            0.012666064966857318,
            -0.05303353113257398,
            0.03161264707581965,
            -0.037577291321660745,
            -0.05994387583028308,
            0.15644866339726884,
            -0.004722135615694611,
            0.052638204374878615,
            -0.01837572593067922,
            -0.0051608070579182794,
            -0.009490399595475511
        ],
        [
            0.007281669038299892,
            0.03840539672046404,
            -0.3560321269789985,
            0.013581728116367828,
            -0.23302374123540412,
            0.1290129229000078,
            0.003918667323978586,
            0.14451362599081394,
            0.18275986080530315,
            0.03362097249164304,
            -0.16072836960101972,
            0.10734597780052114,
            -0.08796400989579473,
            0.22323815467132402,
            0.4195911587586648,
            -0.18425908082201659,
            -0.2787589170117346
        ],
        [
            0.12252981124364393,
            0.0960963629889388,
            -0.17709596555342091,
            -0.011678467870853167,
            -0.10640964286102596,
            0.12130506666958131,
            -0.07946155887863003,
            0.11293993285308974,
            0.05365402258697869,
            -0.0016116416216626788,
            -0.036928101583702126,
            -0.030604178541430504,
            -0.025348728949723075,
            -0.014035525869599408,
            0.061710218057620114,
            -0.11952038504658423,
            0.03767064948091553
        ],
        [
            -0.1756597016164489,
            0.11344051385526781,
            0.04603488927974852,
            0.07834499769827216,
            0.020512978934216438,
            0.1553630026226377,
            0.03632809336024552,
            0.08128167975589005,
            -0.06921896021777474,
            0.011229635918984852,
            0.16621842029560593,
            -0.0808717365846744,
            -0.19124222270024607,
            -0.04882422485702903,
            -0.02344414319222262,
            0.045429426673128756,
            -0.1674289396051201
        ],
        [
            -0.3264331492189697,
            -0.28169856407057103,
            -0.05234662519434763,
            0.3208648335979866,
            0.08059975336835143,
            0.015634453171319545,
            0.2250177144128301,
            0.08663176588114681,
            0.008526179018896804,
            0.10599801210534716,
            0.17294043039180113,
            -0.08532428087454458,
            -0.16462224323808347,
            -0.10399794435969183,
            -0.0348094377316024,
            0.21477653117294407,
            -0.1810256831789939
        ],
        [
            -0.35953076317768856,
            0.021926145155718436,
            0.10853050435779664,
            0.08720029011901927,
            0.1571791573743624,
            -0.11595739705336017,
            0.11573621953415639,
            0.03839693342290819,
            -0.006727931563936855,
            -0.08488285669634664,
            0.3369363501604832,
            -0.06378552308977696,
            -0.10184364827517345,
            -0.14517710316682042,
            -0.015433922103099731,
            0.07920573592610705,
            -0.05699356936428427
        ],
        [
            0.13630313155019214,
            0.050681107136903686,
            0.03772957819234917,
            -0.14761127680540412,
            -0.10137016391868246,
            0.06005702449259833,
            -0.08832982373721954,
            0.03723777194841857,
            0.11788031706400649,
            -0.019778640818143994,
            -0.07081917482172917,
            -0.006901292385449672,
            -0.049840574907455984,
            0.08070169404094808,
            0.12392402406757536,
            -0.04562365945273766,
            -0.11697130188453986
        ],
        [
            0.05709887190043805,
            0.12229575997362321,
            0.024013081531645858,
            -0.2327567466200347,
            0.11490388550354307,
            -0.08041447778062885,
            0.14318331031804235,
            -0.05225640418057353,
            -0.09036826111639251,
            -0.30560682609555395,
            0.2910019415446457,
            -0.008596879104208822,
            0.09472890729048493,
            -0.18101527526845146,
            -0.09388668964199734,
            0.13242324737279879,
            0.06414185926364951
        ],
        [
            0.0770529650602958,
            0.057939637657456154,
            0.07582745507543696,
            -0.16495106973195037,
            -0.008835486880857382,
            0.033142935392156916,
            0.0013705560316762148,
            -0.02157266477153256,
            0.05397113723503791,
            -0.15674748456912435,
            0.0637081586935577,
            0.00596403505936824,
            0.06299816827601554,
            -0.1119279145873628,
            -0.0737476525196864,
            0.09936388166715392,
            0.009006937433751017
        ],
        [
            -0.02161042281812805,
            -0.07875970078270057,
            -0.19844623684796875,
            0.01927831049370809,
            -0.15568756700843275,
            0.25666251193058887,
            0.13267177062011193,
            0.05621263139334912,
            0.1802671562399183,
            0.17605325842877634,
            -0.23558289086950182,
            -0.1118638799826058,
            -0.15794176376394256,
            0.20168136016114055,
            0.28182470608967064,
            -0.19045658523433429,
            -0.1527625987522224
        ],
        [
            -0.0022435728288969703,
            -0.1262987139034911,
            0.05226290223966459,
            -0.024516001332921557,
            -0.06056768124903558,
            0.09188679496313047,
            0.0270172010462175,
            0.13437831612471107,
            0.06668735308155363,
            -0.21011182402246495,
            0.10010134653918001,
            -0.04268584253058644,
            0.03182231837601384,
            -0.03910782540396004,
            -0.0012064635157345862,
            -0.04913072341060565,
            0.052883383262265674
        ],
        [
            0.03240348817028821,
            0.08774922310540399,
            -0.1145871657134297,
            0.13069536286137284,
            -0.011973248455459627,
            0.08229681474793339,
            0.1015556166792114,
            -0.026235279550442348,
            -0.0039727635400252405,
            0.13744176952052853,
            -0.009978394475151815,
            -0.11453907990911318,
            -0.17223073995995983,
            0.0024643797871396578,
            -0.010999596877565616,
            0.08056074736536785,
            -0.1939072694340805
        ],
        [
            -0.0632387997643527,
            -0.06068322513359153,
            0.0681799166753696,
            0.12953247629289008,
            0.08750169939837082,
            -0.025380270853079437,
            0.05506536600195722,
            0.09228561144082931,
            -0.02012366971705094,
            -0.14657290344774673,
            0.08424348813104648,
            -0.13076366628670055,
            -0.045637317176906146,
            -0.010698015193645079,
            -0.002891830684529636,
            0.2000509619366795,
            -0.2154873488985252
        ],
        [
            -0.21951460836967748,
            -0.11117188157344896,
            0.1607726909880157,
            0.12952575527907684,
            0.10067345101824002,
            -0.15104465834402134,
            -0.023368978261599775,
            0.08961841341982067,
            -0.04341817585902079,
            -0.021150871798872924,
            0.3095539057843693,
            0.07478102893961316,
            -0.1341963887026662,
            -0.08838486138960741,
            0.012761836832825432,
            0.05807105814310984,
            -0.14891881351597935
        ],
        [
            0.03578239582925822,
            0.11474051838327749,
            -0.23610138791308888,
            -0.041468532126946504,
            -0.08384043901650881,
            0.09402804879311241,
            -0.06045893157890672,
            0.0038801798775410165,
            0.1829951524019637,
            0.16249482901079979,
            -0.1350075755450844,
            -0.08087781659730105,
            -0.06169716361791784,
            0.06711891679773674,
            0.16946402088299733,
            -0.06665595743999683,
            -0.06620092995540888
        ],
        [
            -0.018622891379605794,
            0.11436396087347317,
            0.0007218622525500183,
            -0.21845220083832315,
            0.10181498851643596,
            -0.08799228473433787,
            0.15241747504301031,
            0.009957435507154822,
            -0.10978695972548567,
            -0.10845984667390758,
            0.2303964175795696,
            0.06645679762248699,
            0.055542247155293586,
            -0.14891485541613017,
            -0.044778169121549485,
            0.02024843225765825,
            -0.010088727260797957
        ],
        [
            -0.0894858559236362,
            0.1741984726505743,
            -0.09046939769835893,
            -0.14218100523929006,
            -0.0047713754751064095,
            0.07081298397748147,
            0.029015099838015375,
            0.015137450033853807,
            0.06517761546907763,
            0.0007705340800711853,
            -0.05520976251412774,
            -0.0027676653473768286,
            0.10251632218389505,
            -0.12599565257290118,
            -0.005086890952152354,
            0.06872583175123849,
            -0.007627839841724883
        ],
        [
            -0.05893579929149682,
            -0.16912500817234347,
            0.08561320680264062,
            0.013723144384363412,
            -0.1016126166077928,
            0.23899924188631244,
            0.19147818670746558,
            0.03221186303473261,
            0.028382813020113754,
            0.2036555135031395,
            -0.18729111246689417,
            -0.048545326602309445,
            -0.2514273063921187,
            0.13277703574000474,
            0.18681374730328681,
            -0.20671315264553813,
            -0.09111378569414537
        ],
        [
            0.14450272542298312,
            0.12032795318672881,
            0.03234999106812968,
            -0.05708628179835433,
            -0.002840935587540398,
            0.09480771083634655,
            0.03388858826968737,
            0.1174002989572525,
            -0.01367442542574451,
            0.07745887502068763,
            -0.39316858902517543,
            -0.06791947840231052,
            0.03370786105779341,
            -0.09024633596222661,
            -0.0009207127838499332,
            -0.06077081099876822,
            0.03157854267958874
        ],
        [
            0.02494815188492196,
            0.06351404425886238,
            -0.0983975575120929,
            0.10391410919567323,
            0.05037573818464189,
            0.07241447960885279,
            0.04710760649557009,
            0.0185116546069384,
            -0.015955103533405374,
            -0.08801553402453442,
            0.09881524095119407,
            -0.19397177402384178,
            -0.05187869857658902,
            0.02759339034016459,
            -0.006795023155791458,
            0.0820796603040187,
            -0.13635978908820018
        ],
        [
            -0.10739458511806323,
            -0.23111843892470083,
            0.3199139065998554,
            -0.010515132212997774,
            0.20990881186218158,
            0.09460029552101763,
            0.07517828131570484,
            0.1133876584588172,
            0.04815894886795286,
            -0.24681046179137542,
            -0.1626317397690419,
            -0.14523737818038993,
            0.033649905621215156,
            0.037857116624940165,
            -0.04464220963465677,
            0.19656682803455683,
            -0.17678323224711842
        ],
        [
            -0.16866812221133073,
            -0.0001866183776512117,
            0.22704021301273003,
            0.0384764936974265,
            0.1197780290099671,
            -0.0812501509528973,
            -0.03747924549105268,
            0.09973908916354308,
            0.014629539923223998,
            -0.14327409945025013,
            0.1362291608045302,
            0.0459328779759779,
            -0.05337782049991528,
            -0.07374912726844202,
            -0.018667898603971486,
            0.0432423880788861,
            -0.14602049544413284
        ],
        [
            0.002708385753018213,
            -0.006037382303480713,
            0.03649432841501057,
            -0.031181864066874128,
            -0.033183988502536274,
            0.08412062011898433,
            0.012260190773119416,
            -0.05114577993985904,
            0.12094389026324662,
            -0.009537167236142955,
            0.09168962906156174,
            -0.10359472751613254,
            -0.14712458336238712,
            0.02055698978038821,
            0.09845032404128437,
            -0.054886650127050754,
            -0.026127695404558646
        ],
        [
            0.09434182855682478,
            0.16227344100864657,
            -0.09057678871579652,
            -0.19222638996411937,
            0.0408984358759105,
            -0.12866080426374368,
            0.04787559315571249,
            0.013030545205938606,
            -0.10699477600488884,
            -0.0012536986753365835,
            0.18869746080035302,
            0.07266659761325268,
            0.06383394848320839,
            -0.12540771521699373,
            -0.0007924364149877738,
            0.006040352441809611,
            -0.043779767273878306
        ],
        [
            0.09309120303085908,
            0.11941427302878738,
            0.008592630542499084,
            -0.17659833842264477,
            0.007491995581117252,
            0.06100347231889375,
            0.04275917389238352,
            -0.013454978795220559,
            0.07493746004652176,
            -0.0595447406992,
            -0.1167039410719705,
            0.01894334041716175,
            0.048777022610500084,
            -0.11268797046652494,
            0.015272859744309081,
            0.03077629182650436,
            -0.042695774144145035
        ],
        [
            0.11894959762847122,
            -0.06512922806818595,
            -0.01660532570291596,
            -0.011066146084664795,
            -0.05726922298522702,
            0.18899469577525016,
            0.2841862503257646,
            0.1274280604653354,
            -0.19210575089705134,
            0.2031187616190305,
            -0.2949700701755692,
            -0.03417128379775931,
            -0.14583314174023052,
            0.05006339340565649,
            0.06284630585172755,
            -0.2281560423477443,
            0.01290794391691429
        ],
        [
            0.23284152882391213,
            0.0982818954628738,
            0.038849169420410376,
            -0.07640375927260663,
            -0.022678036097886923,
            0.12370574726328738,
            -0.04033731831200819,
            0.07569865082129525,
            -0.06191427857799116,
            -0.0296424199101384,
            -0.14530835562980918,
            -0.06029059406315074,
            -0.010748800631709203,
            -0.09339262584308827,
            -0.027641573843662334,
            -0.009211420467627752,
            0.0090647886578757
        ],
        [
            -0.05451588110871098,
            -0.1126198706286174,
            -0.02482031845437944,
            0.07148041204687057,
            0.07079061847908338,
            0.16928076223331343,
            0.0512909451155603,
            -0.00911502968005839,
            -0.030831100351769503,
            -0.06241175605558992,
            0.0484506730513889,
            -0.18481694940923074,
            -0.040805884946059454,
            0.10688937284461703,
            -0.020653680658549438,
            0.1263955487085446,
            -0.1056678073722337
        ],
        [
            -0.03429630788289636,
            -0.2443528315919562,
            0.21618471912974524,
            -0.08647731478736095,
            0.16981143673192461,
            0.20038752126832984,
            0.10443309568061858,
            0.04495757657774912,
            0.04989376711450288,
            -0.13945410001222786,
            -0.20088890728041384,
            -0.19928392351017166,
            0.05709882948104213,
            0.08355859453083564,
            0.04132602179652058,
            0.11116090594474226,
            -0.17668741931540433
        ],
        [
            -0.19249552455526828,
            -0.07450196558471552,
            0.15789422955635216,
            0.008799129672383992,
            0.13981241924252474,
            0.0245935917294169,
            -0.029801632025262585,
            0.06457269862152211,
            0.04043810028847326,
            -0.08179655161342349,
            0.0825858326173278,
            0.017029033665234825,
            0.03379651287321929,
            -0.08875591393391964,
            0.004763498770815778,
            -0.021888838891119162,
            -0.08037113572200956
        ],
        [
            0.006799193404281972,
            0.016967295530375837,
            0.04636769175658224,
            0.03409446825951142,
            -0.04049969916346844,
            0.13457949034095895,
            0.03438689757289167,
            0.009051753126824798,
            -0.05977918476488674,
            0.05341466287904152,
            -0.03422941686931636,
            -0.09544999919952116,
            -0.11545890772288765,
            0.041205569913794926,
            0.03765748790665611,
            -0.06180094285020406,
            -0.009752001440011511
        ],
        [
            0.0009648650060876004,
            0.17935624521564722,
            -0.12398202040222246,
            -0.1693926334872938,
            -0.0521467267305183,
            -0.10909551214562768,
            0.08720703807638809,
            -0.01826819358496563,
            -0.05106394143166517,
            -0.0012485878890208795,
            0.2797676591715641,
            0.11436724594920035,
            0.060726093863721624,
            -0.12787273581389877,
            -0.03414217442781804,
            -0.0028647763116179596,
            -0.03344135128656921
        ],
        [
            0.03511365055893715,
            0.11474784010036668,
            -0.04447851818220325,
            -0.1293668460470671,
            -0.09120022868924617,
            0.05861594598667842,
            0.0837876629105672,
            -0.02010639780112182,
            0.02479672450602907,
            0.06711238148574433,
            -0.02802394819007191,
            -0.06710923677805367,
            0.04929890126778654,
            -0.026453218241682216,
            0.021672912860912615,
            0.01253353775755619,
            -0.061658496681319695
        ],
        [
            0.06240537649246227,
            0.11172752696925532,
            0.0566605476259921,
            -0.0034546931521692334,
            0.008909036704590765,
            0.02913390169205963,
            0.21710679180967174,
            0.028331593049985636,
            -0.13276555171004098,
            0.04801826961452491,
            -0.2105688682659775,
            0.030793090105544138,
            -0.10089944875381461,
            -0.007590521444727341,
            -0.018760401119841993,
            -0.16501363529459387,
            0.04320969651021386
        ],
        [
            0.1750405180520202,
            0.21806704122411236,
            -0.014217039480386183,
            -0.06663874919437596,
            -0.030753323678501986,
            0.05959182480213736,
            -0.015508436451346289,
            0.024056325565112217,
            -0.05634863215211699,
            -0.007332120645981825,
            -0.13733807560435216,
            -0.16183425588045747,
            0.03343740858808015,
            -0.01994478297744785,
            -0.07259894044286273,
            0.10916423425315877,
            -0.03100581091899395
        ],
        [
            -0.08451796445697285,
            -0.11175925012005622,
            0.037921131476301315,
            0.06109593289988134,
            0.07354127989539293,
            0.11016217502243103,
            0.10970414808252045,
            0.001741938242672613,
            0.014237738342310798,
            -0.10356524917538831,
            -0.043605635879820526,
            -0.062463665152173935,
            -0.093144193542376,
            0.11716314791443212,
            -0.028876956534682842,
            0.1048533993808696,
            -0.09845167890134764
        ],
        [
            -0.003544641587111422,
            -0.14417772600435086,
            0.10693275171787966,
            -0.12301778268782215,
            0.11326823813539505,
            0.14806951530830517,
            0.18805884913875037,
            0.07828051205800682,
            0.13342061185320467,
            -0.02832657304384681,
            -0.40165116540618256,
            -0.22683111908864048,
            -0.0017268414014091026,
            0.1637367612096432,
            0.05770547639321887,
            0.1285596571524701,
            -0.1882324857869373
        ],
        [
            -0.17434991935607752,
            -0.003925718336262666,
            0.20629062471402151,
            0.0020575848585841117,
            0.1009380973436617,
            0.04975789966077887,
            -0.009073548229490644,
            0.0699605280916771,
            0.05262192856746374,
            -0.17146617519748075,
            0.04806501410703677,
            -0.025521587255107718,
            0.03679639311156764,
            -0.07324504991574837,
            0.08468175628542093,
            -0.10369599420008564,
            -0.09204202034083749
        ],
        [
            0.09754924056951113,
            0.12694621961201313,
            0.05145010803572398,
            -0.05047892215323649,
            -0.025392405791537075,
            0.03719572426967392,
            0.035195268469109746,
            -0.004777436261695235,
            -0.08501223079283161,
            0.07243438319440798,
            -0.07207560079037714,
            -0.052797053026008095,
            -0.07183334497729865,
            0.0002284186216646344,
            -0.03346768982784713,
            -0.0762776128193676,
            0.05412100357122285
        ],
        [
            -0.028218712481792876,
            0.21242254003876107,
            -0.18200920553388686,
            -0.15688747343411813,
            -0.08256666924268055,
            -0.025084109788630144,
            0.10129318062995692,
            0.01990213620809418,
            -0.009896603317156616,
            -0.01530465039220066,
            0.2966856469175407,
            0.12418743238348014,
            0.0209696095063597,
            -0.1435877905867407,
            0.02193870917775774,
            -0.12480325540138283,
            -0.025643382383542253
        ],
        [
            0.21819643031271876,
            0.17452337312382454,
            -0.09267166985704282,
            -0.18964638031147152,
            -0.12548437530677442,
            0.1161233200608279,
            0.11656934697697015,
            -0.030122116854726037,
            -0.008369083273921139,
            0.03213703960040858,
            -0.024256812819517998,
            -0.08044953577612829,
            0.016178274766892806,
            -0.04438217040915036,
            -0.04786518820943746,
            0.00638265703593479,
            -0.036807386582361476
        ],
        [
            -0.02678506467853289,
            0.17257173486245658,
            0.054757432178842595,
            0.043704352330953114,
            0.0782482286702019,
            -0.0196227696501839,
            0.10155803511545096,
            0.011865102000823564,
            -0.11239516848764049,
            -0.13806728840387336,
            -0.08866888588979976,
            0.047726557517323534,
            -0.02930724502410423,
            0.00998258584082179,
            -0.04738435749861556,
            -0.027433496038180506,
            -0.03214533867924353
        ],
        [
            0.10148514634459102,
            0.09262610817329663,
            -0.03047610504637332,
            -0.0647733399540873,
            -0.020769905829486485,
            -0.04059705604994755,
            0.02041242264192816,
            0.10646649105865104,
            -0.043581403882493604,
            -0.11795433666498041,
            0.19927448091178857,
            -0.12210968961212204,
            0.001401996768581264,
            -0.03887715101315904,
            -0.05487917235342303,
            0.06743733363451664,
            -0.058935391580973065
        ],
        [
            -0.025520207635570655,
            -0.09704718171595138,
            0.0982835902588161,
            0.008127662607263046,
            0.06325250856588716,
            0.14058864724125117,
            0.06149387965741585,
            0.0848087878077891,
            -0.022387128338726178,
            0.060424964417577304,
            -0.2820115189519391,
            -0.11583489363860495,
            -0.16201892881543675,
            0.17487894549663774,
            -0.019231577405071837,
            0.14852977779473647,
            -0.11170336480191793
        ],
        [
            -0.03531725138264655,
            -0.21495838001934003,
            0.015145318120265738,
            -0.18455026712596093,
            0.06292550149387682,
            0.02403831827125638,
            0.099230190740845,
            0.10928661306432334,
            0.18544531951195528,
            -0.0055510904109657274,
            -0.36504348560817657,
            -0.040446882521257936,
            0.08653508280647654,
            0.16565612082803383,
            0.12259706822265913,
            0.0913854727017644,
            -0.11472228763455436
        ],
        [
            -0.1795087443174756,
            0.04669693736308881,
            0.04400130760154637,
            0.006486573280205631,
            0.0470917648023659,
            0.029167443480266318,
            -0.02128977059105496,
            0.12111911528823169,
            0.028268113368736747,
            0.0917123863482569,
            0.03859726139120967,
            -0.15414166300113682,
            0.01663292911258147,
            -0.012900771841785674,
            0.05591894734960107,
            -0.06854782378196972,
            -0.08712465438408336
        ],
        [
            0.1219755851671493,
            0.12100971057719244,
            0.12837218001136969,
            -0.023867116907880303,
            0.003274349429711225,
            -0.04185896788955392,
            -0.0414972351547277,
            -0.011342821289348605,
            -0.07677736666654851,
            -0.0327450136635844,
            -0.006301825472792275,
            -0.032658752150657604,
            -0.04870350830439327,
            -0.033223875437450305,
            -0.08739485415328507,
            -0.012606600295127866,
            0.07154917564479739
        ],
        [
            -0.012997543849501681,
            0.2470336650189624,
            -0.17542049675846355,
            -0.08644943667931614,
            -0.10138703633710243,
            0.039908226526490155,
            0.058520214006001506,
            0.0914370806552691,
            -0.07142188552088524,
            0.08602287324125651,
            0.28361302968790086,
            -0.004562563101510117,
            -0.04305585754745232,
            -0.1338415579269903,
            -0.016703998785636453,
            -0.1675834752491613,
            0.0037438577932031843
        ],
        [
            0.11937537967435508,
            0.09942095955789056,
            0.049845592219469645,
            -0.125427039509839,
            -0.1588618513630048,
            -0.015780644207944197,
            0.13735024825999087,
            0.018880906702638166,
            -0.025603874192670774,
            0.0422859794890698,
            0.13014421986827973,
            -0.07154569220228929,
            -0.004927871012798648,
            -0.10444582830860648,
            -0.04296024772908639,
            -0.05955896715066067,
            0.007601544918451333
        ],
        [
            -0.11316401102739815,
            0.17457317967888236,
            0.06686824811441178,
            0.06306636674843494,
            0.12709023191651483,
            0.026031562514791984,
            0.14578362224327263,
            -0.06252562050931679,
            -0.0623301974962393,
            -0.3677999492439614,
            -0.12705614554115446,
            0.056155211213713356,
            0.01872809641526364,
            0.0697596810280531,
            0.04268770843108718,
            0.030432111312422308,
            -0.08636601704535714
        ],
        [
            0.26683464182057715,
            0.11079749413308233,
            -0.15368749619353295,
            -0.056139878214964675,
            -0.03615346275510866,
            0.06426206984485676,
            0.06716394032575015,
            0.09689143601206712,
            -0.06729369319442968,
            -0.045162051023766116,
            0.01750038640740046,
            -0.2380147794876016,
            -0.034869646372779804,
            -0.04891633435772682,
            -0.03592929721455086,
            0.08894673813892026,
            -0.0018427720119649404
        ],
        [
            -0.06813707813864862,
            -0.24133119187474739,
            0.0552649290537958,
            0.02842709738662007,
            0.0338067612978108,
            0.15683902358950197,
            -0.0487556759346256,
            0.04225028290809414,
            0.04260474615800167,
            0.017267744136778333,
            -0.152650364480285,
            0.0951528648426287,
            -0.1267213735054552,
            0.14115812848021733,
            -0.043667299468375255,
            0.15068627222485295,
            -0.08071225948918684
        ],
        [
            -0.06970487758746897,
            -0.35656824482564037,
            0.21658979518734475,
            -0.19306622434600648,
            0.02679633720806617,
            0.006229856233719093,
            0.14275442809568695,
            -0.03379215345876708,
            0.165166180418927,
            0.05769267678818304,
            -0.30495737126696537,
            -0.009879549378039655,
            0.0978813654297587,
            0.09783571004974502,
            0.060317941156371464,
            0.12800642540277324,
            -0.032883647532334456
        ],
        [
            -0.10972616805272976,
            0.011384907540242338,
            0.09977897972115342,
            -0.05925313776053208,
            0.0288540286098737,
            0.05540963118207754,
            -0.06077376177491322,
            0.09255641939761426,
            0.04134136606547281,
            0.09923542919511037,
            0.03279652563440823,
            -0.09958462741381233,
            -0.010532169505083512,
            -0.028451471001512373,
            0.07036702196899072,
            -0.11139069747158088,
            -0.05165669977622831
        ],
        [
            0.026377433679113754,
            0.22434562942052336,
            0.2666139484243098,
            -0.07687897519897895,
            0.01587940576209233,
            -0.02917908610287084,
            -0.06647095827566796,
            -0.04052594627076049,
            -0.08851101743130749,
            -0.21054665599599992,
            0.06058705234765256,
            -0.08126717952099084,
            -0.03984465726893285,
            -0.018888583462499744,
            -0.04748688262866437,
            0.06255020261612594,
            0.040664075129552814
        ],
        [
            0.06783476764755075,
            0.3299310741673087,
            -0.2456870453096241,
            -0.06963863891725233,
            -0.12238950789264506,
            0.10272947977196302,
            0.004245572823534874,
            0.05658403986335822,
            -0.11540413892820017,
            0.17412195196137092,
            0.30297419523694674,
            -0.06000682731223311,
            -0.06319570481848434,
            -0.1431002715954536,
            -0.028757948161954074,
            -0.21170198827333345,
            0.020926053569565974
        ],
        [
            0.17850050451903454,
            0.13528128607130424,
            0.09030444993463317,
            -0.1052983890503435,
            -0.14369777522462954,
            0.03246104336670384,
            0.0779564909337305,
            0.031746381571265636,
            -0.09805721096185954,
            -0.03897639490763783,
            0.15194671421363787,
            -0.12837228988404487,
            -0.03381674157461709,
            -0.12967709799961963,
            -0.06693400038732539,
            -0.02295338110369098,
            0.07050552204584312
        ],
        [
            -0.08181606500224549,
            -0.20284126514699274,
            -0.09101437924968074,
            0.06840508578847376,
            0.15666529606976512,
            -0.07055986688791935,
            0.2177570549532105,
            0.07679239301737667,
            0.07985720209337988,
            -0.24092077259944578,
            -0.2625200209601315,
            0.16617880947176722,
            0.013797635686609114,
            0.20611246343782993,
            0.10002740989743883,
            -0.004155994136687373,
            -0.1332029127111447
        ],
        [
            0.05955399761012997,
            0.03251197325880595,
            -0.052476342316519195,
            -0.08514580489010913,
            -0.13821736779256907,
            0.17567358744728107,
            0.12585799391049787,
            0.14537607600228286,
            -0.035785069466391435,
            -0.13219839822149923,
            0.1854500119841505,
            -0.11610707450130504,
            -0.09678720840985777,
            -0.1083132316693241,
            -0.015736372951917908,
            0.051730242479283206,
            0.007528636802489275
        ],
        [
            -0.08496194646231923,
            -0.1822927671893077,
            0.11693792816775789,
            -0.011300826597135303,
            0.06798926536858367,
            0.08392496248256612,
            0.0047121483459236085,
            -0.09178263517511809,
            0.04324711965714786,
            -0.007763212481877809,
            -0.298723743020814,
            0.12228880350794942,
            0.004028841426779231,
            0.18538908034209486,
            -0.014443953125143304,
            0.11834035946683807,
            -0.05743921806868993
        ],
        [
            -0.17777762488677465,
            -0.052568191430066996,
            0.24683161397842618,
            -0.23782093542637145,
            0.009200391035679493,
            -0.016036062798934023,
            0.16755505743137808,
            -0.040890484836367536,
            0.09584722218547098,
            0.10982809522913695,
            -0.29098783617794416,
            -0.023485369133066255,
            0.1343954422614181,
            -0.02324021451752031,
            0.08649761235683173,
            0.08297899654069758,
            -0.07278817803830473
        ],
        [
            -0.20715764261902606,
            -0.05239002950177339,
            0.12645906603644433,
            -0.12224487694781702,
            0.04401960222666516,
            0.11435752927406544,
            0.10364027385358822,
            0.0416981561346733,
            0.03953896917285687,
            0.08061597311256684,
            -0.1381528972648121,
            0.014006898464283496,
            0.02762422723325853,
            0.004126637198106011,
            0.004551348411505489,
            -0.046793824345730387,
            -0.029919441287314358
        ],
        [
            0.05755658585674319,
            0.03302880660964134,
            0.25792995676654634,
            -0.10372196649380301,
            0.0414271307788851,
            -0.10977590576747165,
            0.02636001242956909,
            -0.02255706962383585,
            0.003709607216296631,
            -0.37310670608112123,
            -0.060471355263491976,
            0.04611847038571061,
            0.025800770433395508,
            0.1253813089153165,
            0.021468782371117975,
            0.09845715693787432,
            -0.068253764890406
        ],
        [
            0.06788767949620858,
            0.28951993578304047,
            -0.2107091677785771,
            -0.0950912777592129,
            -0.08947198425259326,
            0.14851727821758667,
            0.033398768418290294,
            0.013629016048957719,
            -0.13596274303698683,
            0.01327178412836107,
            0.29448207833655643,
            0.08944349913174049,
            -0.11090942074539542,
            -0.11998119015267597,
            -0.05408590880035374,
            -0.12799943220447615,
            -0.00425899579538443
        ],
        [
            0.20796229677593753,
            0.061716551992615346,
            0.036950283145964054,
            -0.13708128842726222,
            -0.11117065585028903,
            0.06106324049018941,
            0.041962408400397076,
            0.030435033729331908,
            -0.07058034054473006,
            -0.0961041641250312,
            0.22199428940346702,
            -0.02737998521788082,
            -0.04444435305132563,
            -0.05321182622451509,
            -0.09758985377729444,
            0.010736403772820547,
            -0.0367076901820234
        ],
        [
            -0.13012880319933126,
            -0.1763995361970304,
            -0.20337655370525548,
            0.07711351955799294,
            0.18899804274852336,
            0.07334031373639265,
            0.07958351034871172,
            0.01063763865714876,
            0.06476978888577259,
            0.05678780415159676,
            -0.2442589607450871,
            0.1782660173108612,
            -0.021217666232042864,
            -0.01920334753421185,
            0.06258308989184995,
            0.03795166105755556,
            -0.03883644872185897
        ],
        [
            0.2577043835202759,
            0.1925687515327994,
            0.09675223440726381,
            -0.08308252117771771,
            -0.07727054760744768,
            0.1664160280554695,
            -0.05771705520290587,
            0.002592064473212495,
            -0.09866726795060647,
            -0.38285513286847395,
            0.21806781937581401,
            -0.22130403338656093,
            -0.15890777293837205,
            0.013042498861445139,
            -0.07435643911427155,
            0.1819862164669329,
            0.02492863501888195
        ],
        [
            -0.06701924309802432,
            -0.02273741698069855,
            -0.018902626694865792,
            -0.04540245136848595,
            -0.04756435008974747,
            -0.016011213690978982,
            0.15860754424825266,
            -0.054498916125129956,
            0.021137311327416235,
            -0.10228758229850825,
            -0.16965438365479088,
            0.09141515508297925,
            0.1225525835418861,
            0.07671114484235654,
            0.1374915130767844,
            0.008677077253098736,
            -0.07407394124500437
        ],
        [
            -0.058408708039292885,
            0.13649796987912927,
            0.13355726571782,
            -0.1350786225683794,
            -0.05863885089717015,
            -0.10810894480729445,
            0.23616752368617291,
            0.10263834512654807,
            -0.06347501939313915,
            -0.19248946728570074,
            -0.019912206784167812,
            -0.11010566696744689,
            0.00975729900627327,
            0.149671501763027,
            0.015810915517373663,
            -0.007753638791199073,
            -0.031064086331398927
        ],
        [
            -0.11367076412362434,
            0.03393637166208026,
            -0.03200271069682371,
            -0.03748720875235119,
            -0.07434082557861972,
            0.046131142020550166,
            0.2104927436922965,
            0.014203844168878913,
            0.07893252921644886,
            -0.11437450153099624,
            -0.07019762865704038,
            -0.013117518620883128,
            0.2211014572253955,
            -0.002906994019693866,
            0.0859839479960704,
            -0.22005914639612056,
            -0.012992162902673366
        ],
        [
            -0.03441751414381316,
            -0.1654487401407247,
            0.01654805703687509,
            -0.04908375289707424,
            0.04302419982296204,
            -0.024004126348292326,
            0.11057845399948688,
            0.10951174831035108,
            0.02522371622620403,
            -0.13670230840477385,
            -0.1773834164716848,
            0.17078782835101375,
            0.03646860350682312,
            0.06073637457115543,
            0.1563491512735007,
            -0.14251969329218303,
            0.0017865324641109495
        ],
        [
            -0.013738125322797319,
            0.1135096260218923,
            0.07414907344301779,
            -0.12001868906532352,
            -0.06373589076440375,
            0.10846165826664708,
            -0.03240364129061028,
            0.020178012569636573,
            -0.05383544106433759,
            -0.043894189084722125,
            0.09915327084431393,
            0.1877831077092609,
            0.05911261824386399,
            -0.17347498258098487,
            -0.030397367112801384,
            -0.1224667725044966,
            -0.004131255876152999
        ],
        [
            0.08332578236199607,
            0.18068664762406564,
            0.06808457127746045,
            -0.1296210921503983,
            -0.04878432650082611,
            0.040427151235819914,
            0.06439292372354326,
            0.05618629601982093,
            -0.09493207765346755,
            -0.10584585857250585,
            0.011160682607863357,
            0.037458590764074436,
            -0.012994450172312856,
            -0.01821588634217724,
            -0.025423446144460977,
            -0.10803676128375082,
            -0.004914261753693364
        ],
        [
            0.05145373766952159,
            -0.18681928410714876,
            0.29770849331488214,
            0.10972478439726896,
            0.09011178941923526,
            0.018324368961792067,
            -0.10186994424308739,
            -0.3802760568609793,
            0.06302285564548182,
            0.23538667215325054,
            -0.15945605008540786,
            0.1499818164491708,
            -0.11723398150434362,
            -0.06566459232787289,
            -0.07303665287633769,
            0.16142363464027415,
            -0.09007049681599588
        ],
        [
            0.16714991452239905,
            -0.15286360964384238,
            -0.005814652135954834,
            -0.08870031410306137,
            -0.030215375404868055,
            0.1178532280863709,
            -0.05821336049239577,
            -0.0666712593615896,
            -0.12148473828495356,
            -0.2749950474554108,
            0.2457389634411887,
            -0.11101318714966314,
            0.048470624473402196,
            0.19051484441290015,
            -0.0667403440960014,
            0.20783185164233833,
            -0.0012953368030329366
        ],
        [
            0.03626314549695106,
            0.21299526998413432,
            -0.17611371260518136,
            -0.06875209196745147,
            -0.006873525586938859,
            -0.04217317886578945,
            -0.05903254049633725,
            0.18750481203882827,
            0.017926836793162825,
            0.4021380244775219,
            -0.30610558602656474,
            -0.11994396802137505,
            -0.21826994767372418,
            0.15152002834629263,
            -0.03666012752338572,
            0.13846492491594364,
            -0.1176385249569992
        ],
        [
            -0.06325104564602448,
            0.10992495606011281,
            0.10371668699224505,
            -0.08523206010182767,
            0.023579337094865965,
            -0.0855834904043549,
            0.03595517049737978,
            0.043788972993954636,
            -0.15185092673453673,
            0.09684130645795098,
            0.07281705650877333,
            -0.3848963511943798,
            -0.04030736140676225,
            0.27912033907066136,
            0.1218784295225308,
            0.049928895470211086,
            -0.1241533070406526
        ],
        [
            -0.12201729705063301,
            0.02672504621713461,
            -0.10768037337022333,
            0.011214811616464615,
            0.04099126735911793,
            -0.1479604128709375,
            0.19309391880344967,
            0.2522556609141232,
            -0.01900365134607258,
            0.11898572601032029,
            -0.1335457178332025,
            0.03664025772132029,
            -0.0662253917134,
            0.11639726176706584,
            -0.009239814907508805,
            -0.08464175463839696,
            -0.10275710884549094
        ],
        [
            0.009733059815148333,
            -0.11228761297257742,
            0.21572181397913792,
            -0.03917808532350787,
            0.08915849471249719,
            -0.005673935412844752,
            -0.16761180473631643,
            -0.030845224591055848,
            -0.05267568330267716,
            0.17014058856034767,
            -0.22294650924020132,
            0.04270039328884197,
            -0.028787004837427427,
            0.04413312507132078,
            0.051622323870219713,
            0.03468321511775426,
            0.00235402523447561
        ],
        [
            -0.0536315351799902,
            -0.09593132584896744,
            -0.09185012213295497,
            0.01610136057710298,
            0.06417075697528632,
            -0.09450401431966886,
            0.1437798667887897,
            0.17579990196178263,
            -0.0825545411621826,
            0.044299334297308784,
            -0.1464712973385802,
            0.4414854952531536,
            0.047657918592888975,
            0.011189982084475008,
            -0.033951526781896814,
            -0.2597286926104294,
            -0.08651597229039727
        ],
        [
            0.08660210471333017,
            -0.18875153805373707,
            0.1418816626632235,
            -0.02839291208490009,
            -0.0024844464153856555,
            0.037400839042156596,
            0.023571321370620308,
            0.024929986389019443,
            -0.03529319298674668,
            -0.04707120094279072,
            0.0020263710289491386,
            0.09770288017248854,
            0.0369714910100907,
            -0.011312170777933032,
            0.07147750178338376,
            -0.1596797074863174,
            -0.050949976165292545
        ],
        [
            0.43236262531326025,
            0.028459358934374766,
            -0.09942806429352313,
            -0.16937730780346377,
            -0.10455354817152755,
            -0.0958832624284437,
            0.07691532566025941,
            -0.22680144935173197,
            -0.07722239609934142,
            -0.1155711561050078,
            -0.04686221129976856,
            0.2571456773354343,
            0.06314050354244131,
            0.26136849510549925,
            -0.06671217198711371,
            -0.031221654151852348,
            -0.07900759424060538
        ],
        [
            0.2677698657774543,
            -0.4011736438282497,
            -0.22199328411355093,
            -0.16132533789644113,
            0.11392249092608277,
            -0.20744361561364338,
            -0.04103819380344495,
            0.20539535916830612,
            -0.2267139149750671,
            0.05548165469103491,
            0.20952496924651967,
            0.455759639489947,
            -0.023999503141620134,
            0.29606984222860766,
            -0.18003510129513936,
            -0.0064882822607167006,
            -0.1330460250581677
        ],
        [
            0.01970807823086613,
            -0.016817629563094464,
            -0.13960462983161992,
            0.1542695200799931,
            -0.15947119602653922,
            0.02119592290066981,
            -0.03104190575531101,
            -0.009051280828884891,
            -0.1441960088094598,
            0.4136281699999375,
            -0.12876570254140626,
            -0.28663177719218574,
            -0.1800823542030415,
            0.35178722533588086,
            -0.004233374457186849,
            0.2353213826730363,
            -0.09288051368040955
        ],
        [
            -0.02750859980739416,
            -0.23710381815858247,
            -0.2000558013127577,
            -0.018841629941942696,
            0.009812868621079593,
            -0.057895778174178604,
            0.039889560328059175,
            0.019940394410271994,
            0.008653070446746845,
            0.5475033769065459,
            0.003625069273595991,
            -0.2332406984583054,
            -0.1303685100008184,
            0.21380451344910506,
            0.05545862269283681,
            0.05205611687826789,
            -0.045057270318001864
        ],
        [
            -0.2537707523309692,
            0.038414341083806244,
            0.03841769170780629,
            0.11628227394346587,
            -0.03496595593609705,
            0.11904511334043692,
            -0.02002886788812757,
            0.04852372839758084,
            -0.07682530777639383,
            0.4878174556058125,
            -0.09276898692116314,
            -0.2770241281030689,
            -0.1735630761914864,
            0.16808935470035408,
            0.07933954053823356,
            -0.004732711150318006,
            -0.15908509855647182
        ],
        [
            0.03427513938712331,
            0.09469412566917033,
            -0.12930364435835043,
            -0.013366793203371554,
            -0.03643721061694284,
            -0.02968358021759395,
            -0.07635498475069881,
            -0.046286429808933584,
            0.09822693679374299,
            0.22440141217156134,
            -0.04743618293272515,
            -0.022283784219863784,
            -0.054317312056134895,
            -0.0736628028883251,
            0.10341036559233571,
            -0.038312363751747604,
            0.007923306680592684
        ],
        [
            -0.28293877167172415,
            0.12064442003550346,
            0.15718974251380796,
            0.007568885803855515,
            0.14566807312409744,
            -0.043479844111103984,
            0.08030855664238341,
            0.15362081165649896,
            0.07315776256588577,
            0.11858168595780473,
            -0.1934593286942848,
            0.002579465291280472,
            -0.06348001255849414,
            -0.0820828802003579,
            0.1636396870927764,
            -0.15821674390282994,
            -0.1959676413751449
        ],
        [
            -0.2001640916234569,
            0.026596240091709508,
            0.0860675650388048,
            0.10327335355320089,
            0.13267173676797947,
            -0.020422202117879977,
            0.020647056388317535,
            -0.04585704873306945,
            0.06129442794229202,
            0.15893120528706894,
            0.00955761869211583,
            0.007356157613992442,
            -0.11649860666215571,
            -0.11517930402084291,
            0.04241924143349113,
            -0.09774632834258153,
            -0.05259434965985553
        ],
        [
            0.20001083967451308,
            0.10631404323045804,
            0.08314203015358167,
            0.018514631793278554,
            -0.07586429965439216,
            -0.1670558517012418,
            -0.0611414527284889,
            0.035552361032797276,
            0.09176423471382678,
            -0.12097165564904615,
            0.28549321574713926,
            -0.14841544457928404,
            -0.2475570807004267,
            0.15338130991982044,
            -0.06698406929863707,
            -0.07597452154177625,
            -0.011424203186869264
        ],
        [
            -0.062260058110257685,
            -0.11274666702138106,
            -0.14672298458199381,
            0.13205617115619636,
            0.13724038829373233,
            0.01062045958571612,
            0.14177131899720558,
            -0.08282072054819983,
            0.12297920812008206,
            -0.12834763680315867,
            -0.09207251872885777,
            0.0625970323164907,
            -0.10029740613464755,
            -0.0028941288797936994,
            0.05669709563472186,
            0.04104234674887621,
            0.01897810146913865
        ],
        [
            0.04468470507370705,
            0.3064302321643221,
            -0.06290799851234082,
            0.17334866405682015,
            0.048770368945967486,
            0.07653103554871708,
            -0.03638224697982091,
            0.16208696710104784,
            -0.029121132023979705,
            -0.10619882003188154,
            0.13575109773408905,
            -0.2481694922271863,
            -0.1906475096198302,
            -0.16044976264538804,
            -0.009771123172427763,
            -0.041180737799196364,
            -0.055507547976210776
        ],
        [
            -0.16340470814741134,
            0.10515901267938843,
            -0.2954103107204047,
            0.24494815328224284,
            0.29872136446934977,
            -0.33548748952915924,
            -0.02691868843601808,
            0.1042605826659474,
            -0.22443448213277617,
            0.04985928374429916,
            0.05645875808603987,
            0.0022760755067514323,
            -0.045399409638887424,
            -0.0970945453847836,
            -0.08499461865274642,
            0.24124749965822223,
            0.17015217407654257
        ],
        [
            -0.1981151297005768,
            0.11912543208390518,
            -0.1441117246296326,
            0.10533847327481757,
            0.14845226123342384,
            0.02481028125171254,
            0.060360184895836944,
            0.05042296464462154,
            -0.01866449086311791,
            0.04973418341843667,
            -0.205088585667534,
            -0.022533673938086453,
            -0.02447740348635373,
            -0.05490905296137773,
            0.04911792056052185,
            0.054522488032462416,
            0.008956722786373906
        ],
        [
            0.1376062029677724,
            0.377652474146233,
            0.18090751343773456,
            -0.023401325772539925,
            -0.05976321089896905,
            -0.2810416989773316,
            -0.15239089568804384,
            -0.05973018391767914,
            -0.0013274790045763307,
            -0.03129910604978946,
            0.22815147978204547,
            0.12584687149110718,
            -0.1955078416438218,
            0.04878464785396243,
            -0.13204182772558803,
            -0.07930790512504025,
            -0.08247413122037553
        ],
        [
            0.08729893260512263,
            0.0995876372740133,
            -0.020435794375260084,
            -0.035997683507456045,
            0.11273044640555485,
            -0.008710543232892862,
            0.09711519098976143,
            0.0824992121826287,
            0.018716656843545686,
            -0.1742689242012824,
            -0.1575737562896051,
            0.10732403254412697,
            -0.039691657361119716,
            0.07240956969403116,
            -0.1509437095050293,
            -0.03032279830938408,
            -0.05651433310631817
        ],
        [
            0.0994843366894895,
            0.32564260476370627,
            -0.033754073408835045,
            -0.0853253765169689,
            0.031272731018042614,
            -0.31798841457995347,
            -0.17275569529944168,
            -0.04177716999799421,
            0.045101956935311896,
            -0.023623404070319817,
            0.09660847717929573,
            0.2522501700988461,
            -0.022724530501857607,
            0.06700846316337308,
            -0.04117384184144414,
            -0.14774916994155995,
            -0.030977758033555198
        ],
        [
            -0.19082712569479426,
            0.16319024513048044,
            -0.22950153761282296,
            -0.003499007514677349,
            0.12547521648871954,
            0.046774622928573366,
            0.08036264136799343,
            -0.02463217671706748,
            -0.09240537968041661,
            -0.23035938833956032,
            0.41400488850595946,
            -0.05066827834210806,
            -0.040119282959116515,
            0.06053411501391558,
            0.06643474384749297,
            -0.1179796279779662,
            0.01852078992876397
        ],
        [
            -0.06485685753970068,
            0.2073057741592791,
            0.058545906175881894,
            -0.04405343984885404,
            0.03342197942387961,
            0.11017325687301546,
            -0.0013762827190314934,
            0.025857656157467566,
            -0.1356463793553886,
            -0.1925349440093681,
            0.09555596624117482,
            0.056454010717449175,
            0.06706382711468599,
            -0.05116257524832912,
            -0.10123275796900312,
            0.03738616410515053,
            -0.10771499583316575
        ],
        [
            0.01828657679520429,
            0.15645937638753968,
            -0.032571995332183225,
            0.1295083150527247,
            -0.004362233728058676,
            -0.04718615414127269,
            -0.14711496518580303,
            -0.03713834367044856,
            -0.032949468579159084,
            -0.02765237935805839,
            0.09741805860907489,
            0.04568843389910964,
            -0.07615866855061809,
            -0.10320599826541654,
            -0.03183558764148407,
            0.055779910749661654,
            0.03963173087221578
        ],
        [
            -0.07564442775934774,
            0.44452421662394,
            -0.11599323396868838,
            0.08003336900546316,
            0.05425256089571681,
            -0.30018678119189734,
            0.002307941894183763,
            0.07427706026350976,
            -0.1795174448530688,
            0.4078089964725615,
            -0.16022606898189062,
            0.011792230360459087,
            0.10294406449079849,
            -0.15079499283364348,
            -0.1388552147217458,
            -0.060966480633716576,
            0.003058536298808565
        ],
        [
            -0.04884497147211783,
            0.18421615886960524,
            0.03642110559735812,
            0.016682414129622722,
            -0.008907963661556951,
            -0.13725102580312326,
            -0.11272823830908218,
            -0.043201113677246473,
            0.029456200422790176,
            0.11300692809490594,
            0.00019010045743769386,
            0.2175169418600105,
            0.02566763042665042,
            -0.11837803524425282,
            -0.06092273911580081,
            -0.09854079823458092,
            0.008853151289133906
        ],
        [
            0.039786468543507654,
            -0.1628772183125864,
            0.15660690309279654,
            0.07803007279881968,
            -0.03603823119355414,
            0.2674686469884751,
            0.07783078395231176,
            -0.05627630457828392,
            0.03445141056354951,
            -0.09332561199829814,
            -0.16074195487808232,
            0.0002628643610434844,
            -0.0047051078813811565,
            -0.00214087831202381,
            -0.009910237477443887,
            -0.1578448969799313,
            0.030647856047052675
        ],
        [
            -0.057342213708242155,
            0.1582573206035069,
            0.004991686579463021,
            -0.06469018065443882,
            0.012323160988093138,
            0.13086114014905328,
            0.08053299342276675,
            0.08236733380896491,
            0.03624575674924053,
            -0.03673577325010243,
            -0.1930943972791975,
            0.10898596993584635,
            -0.108773287517127,
            -0.008748510526105209,
            -0.0559736148732598,
            -0.042107392322928594,
            -0.04692417224295107
        ],
        [
            -0.06200358899553206,
            -0.07393946175805668,
            0.25946729123040824,
            -0.007033560276389737,
            -0.07331599589026883,
            0.26934141651013593,
            0.25489739144874707,
            0.1562559086671567,
            0.08934156762904687,
            -0.20361889376650122,
            -0.3221612559265396,
            0.07513264891670857,
            0.06934385111557137,
            -0.20514167992554674,
            -0.20066713219925564,
            0.0030404828276617704,
            -0.026675829951232573
        ],
        [
            -0.37496125883022047,
            0.3023912877748904,
            0.0256461242702857,
            0.164220675204614,
            0.14421219207932345,
            0.13028681064531358,
            0.14836889037345535,
            -0.20959600226437525,
            0.0681824270112049,
            -0.10377655144099639,
            0.13998666023904785,
            0.047255097141914684,
            -0.32234780648536043,
            -0.09760045345096327,
            0.032955150848562285,
            -0.02576716517403788,
            -0.07305408350030414
        ],
        [
            0.125482490641735,
            0.22128701991839878,
            -0.03696276026909234,
            0.14041469448167196,
            -0.1303250520613919,
            0.06855059642869929,
            -0.05419013251475301,
            0.010253001005549343,
            -0.10774315174417419,
            0.05272145818042304,
            -0.19151091156110564,
            0.17862206471270922,
            -0.09325150607071132,
            0.011474537597838022,
            -0.048688623694029445,
            -0.0756418380645582,
            -0.07035041483791096
        ],
        [
            -0.15279640147471196,
            0.05502094355749908,
            0.06424527518799562,
            -0.029087340801397785,
            0.04733498872267591,
            0.03701323017334449,
            -0.03445713763719289,
            -0.0437258831221642,
            -0.25278481881101145,
            -0.004578966062734977,
            0.1675969835611815,
            -0.15642490258869446,
            0.12645900631612766,
            0.018738602616510083,
            -0.025268526503138843,
            0.14145548875138667,
            0.04357707256185742
        ],
        [
            -0.14350352843398173,
            -0.09462059171852269,
            -0.12625931520645287,
            0.08781210302617358,
            -0.07884550631986205,
            0.017231570358445688,
            0.04203095341654856,
            0.16245953981067107,
            -0.3216888071771859,
            0.0668565149492174,
            0.27349602104443277,
            -0.057664957244866935,
            0.21456025264927453,
            0.06328466144738175,
            -0.08646213092773208,
            -0.06155900414351381,
            0.0468898132577748
        ],
        [
            0.055394166950982156,
            -0.07490866580653015,
            -0.12006566249800986,
            0.0487390509716644,
            -0.0676262949841493,
            0.1194348237838759,
            0.013575363628223609,
            0.09960707815912061,
            -0.12188181327507731,
            -0.007211811123151742,
            -0.023710726107100955,
            0.1060918514770261,
            0.0633758343640833,
            0.018135710387705704,
            -0.05961729330296628,
            -0.03764092163802597,
            -0.01258994533039357
        ],
        [
            -0.10355071086749076,
            0.3075728326563268,
            -0.22791156919784766,
            0.014767923784102636,
            0.04745310040159476,
            0.1384272609844774,
            0.0927257199173829,
            -0.23300240399936656,
            -0.0012343725580377263,
            -0.05196294418139505,
            -0.04090199771028182,
            0.02662389952900977,
            -0.0010610328210065385,
            -0.01481187652583559,
            0.1107161712197784,
            -0.04007702623984759,
            -0.021088428812394026
        ],
        [
            0.11283198762970029,
            0.11736941569019418,
            -0.08029694684434877,
            -0.07941803751320049,
            0.0294440864920734,
            0.290924374838972,
            -0.04720148991881638,
            0.1136591936245767,
            0.04769257849495752,
            -0.04315516459269119,
            -0.24436476290743603,
            0.12577434285305067,
            -0.14537834737254993,
            -0.05381340266559077,
            -0.05550618060526681,
            -0.051685607732936206,
            -0.03822326210545795
        ],
        [
            0.0011302117185982878,
            -0.012936032851448566,
            -0.14368824726084878,
            0.008079519083424658,
            0.032141823227927614,
            0.22689337362598502,
            -0.04361810934034026,
            0.0397155406438657,
            0.0909071189218533,
            0.12560365295152393,
            -0.1152797958237888,
            0.08096651795784557,
            -0.1340177188956131,
            -0.09185224765891416,
            0.05790037004968134,
            -0.07264796734528998,
            -0.0519099069456303
        ],
        [
            -0.15211520927481617,
            -0.014471026265426802,
            0.08845604472836867,
            0.17022895223699333,
            0.13743295211541692,
            0.08551343041213941,
            0.07251606702040146,
            -0.10619636300626253,
            -0.07559579722604141,
            0.02703926227579002,
            0.32582156053430666,
            -0.060867634555231094,
            -0.3293423584926246,
            -0.12086857522281567,
            -0.02851451146089792,
            0.0430122118793617,
            -0.0650892133097442
        ],
        [
            0.13143984290173236,
            0.04126832970706199,
            -0.024731938080692305,
            -0.025597255613427117,
            -0.04007126951444933,
            0.15555035810911205,
            -0.07729624157514413,
            0.08280580921135587,
            0.02725937712219991,
            -0.1562793154071441,
            -0.11775918336252562,
            0.10463473434706047,
            -0.055109084244689605,
            0.018412794199867653,
            -0.006035861017154125,
            -0.02559249894243398,
            -0.026958391161954722
        ],
        [
            -0.01958045359419663,
            0.14904244613892034,
            0.10131059331983515,
            0.047583529844472616,
            0.025027771132615752,
            -0.09522833959492798,
            0.009441454707955975,
            -0.11303882292545847,
            -0.2896868171420032,
            -0.03671019655603684,
            0.05461258648036324,
            -0.11351805236283295,
            0.10416922542178726,
            0.10034392034254806,
            0.01974149557597869,
            0.06744108263229485,
            -0.009693674413423612
        ],
        [
            -0.0018398376911376928,
            0.22192262183722103,
            0.0202764167289924,
            -0.07047056495206087,
            0.08398544651885075,
            -0.09397993776947319,
            -0.013324375498922495,
            0.0899831547298929,
            -0.033494858787409765,
            0.27936104096402475,
            -0.14329723594560384,
            -0.04838990262716482,
            0.009036632735693712,
            -0.024585719311511756,
            -0.13485494723691638,
            -0.13920132859614667,
            -0.006185944527160037
        ],
        [
            -0.10942055766688288,
            -0.10121995149217439,
            -0.06856540475615563,
            0.08681708044065564,
            0.027316398643299634,
            0.1185185530024589,
            0.026186032696322373,
            0.0013462982269941178,
            -0.10350663109290795,
            -0.08381711043051873,
            0.3647528885346655,
            -0.03676943763181942,
            -0.005537636028115915,
            3.597746136878231e-05,
            0.02345521172875266,
            -0.1723006267729231,
            0.03417713305436134
        ],
        [
            0.04118137701797816,
            0.002474333148693544,
            0.01814816146459077,
            0.02386747184950398,
            0.0712115488884276,
            0.09699527624241552,
            0.14452312211372434,
            -0.1808250473447949,
            0.0013568222500207284,
            -0.06782207433415074,
            0.04184451612216845,
            0.04617859535094579,
            -0.22531732517416997,
            0.0030806236923669418,
            0.021827864497115806,
            -0.012917771403277737,
            -0.029246141669714443
        ],
        [
            -0.050064047567257436,
            -0.002255196449919249,
            -0.14496858869212786,
            -0.06758032323735266,
            0.06834425515244205,
            0.29461590966862966,
            -0.03713971447005031,
            0.06383740466008556,
            0.03401493210074853,
            -0.014267458933886597,
            -0.06333210912325837,
            0.020240440833299525,
            -0.06190652893773406,
            0.024887747329205595,
            0.04469405490596302,
            -0.11105762645156222,
            0.001039854836587478
        ],
        [
            -0.0694973639368088,
            -0.04457724915103857,
            -0.01849305372603863,
            -0.09042779160853247,
            0.05939598363455144,
            0.23919360411632046,
            0.04102461141986218,
            0.009370604058886444,
            0.20220417623151032,
            0.03204038408807017,
            -0.020524785362743256,
            -0.0966588611217822,
            -0.203487767695254,
            -0.03702736692509091,
            0.01902137166341094,
            0.013303499260516495,
            -0.03316803068733818
        ],
        [
            -0.2511008196610873,
            -0.17729465365671931,
            0.3098150563682965,
            0.2603627492751773,
            0.14626500460783062,
            0.14198197343122712,
            0.08037783937959465,
            0.001393666348296484,
            -0.24883807509804032,
            -0.11791296035187812,
            0.20672513083875912,
            -0.02651031092556838,
            -0.24165404714683603,
            -0.08248456788953826,
            -0.06828573862261,
            0.0420342518002061,
            0.020102095182913296
        ],
        [
            0.14565731046132235,
            -0.06483017279899102,
            -0.05451663050113683,
            0.04428993982352852,
            0.03905132579780962,
            0.1515083453431621,
            -0.025577146402618996,
            0.021285534441956695,
            0.10886258823409833,
            -0.0682890212145398,
            -0.24335677315728785,
            0.0071575128258985895,
            -0.06474187636870576,
            -0.01908530901310599,
            0.024713009198295527,
            0.009713928662978353,
            -0.007936581870664932
        ],
        [
            0.0512553490368276,
            0.16090463828736393,
            0.21246785148224667,
            -0.029703812118295717,
            0.08985367770351872,
            -0.05598414772002198,
            -0.12273319021569196,
            -0.05374033712233368,
            -0.07094254316265039,
            -0.10534012495131666,
            -0.06999390764343917,
            -0.04721607610794973,
            0.07557867037873456,
            0.06088450040513482,
            -0.05467440974030808,
            0.01590683866863222,
            -0.05659125610098542
        ],
        [
            0.06694201691645177,
            0.16913664234469714,
            -0.005217237197643744,
            -0.006445235468590872,
            0.13928233378106405,
            -0.1169578520614983,
            -0.12356869406806847,
            -0.10262658738224689,
            0.37165095570734835,
            0.12654428765861656,
            -0.08528704858532654,
            -0.06517366229181214,
            0.17335157040135096,
            -0.0961483349420429,
            -0.22878962427217983,
            -0.07616864049460156,
            -0.1355762105514328
        ],
        [
            0.02138092316967652,
            0.10187806462750197,
            0.041491139063922905,
            -0.13167821274905123,
            0.019562322304266903,
            0.10425927569510572,
            -0.0896180834051554,
            -0.1008058944695018,
            0.1623713675962435,
            0.17705048303526763,
            -0.008851765798463244,
            -0.001495320854470054,
            0.044732811849879324,
            -0.04717339019279968,
            -0.05852155966148285,
            -0.1716648931340556,
            -0.06140200947989786
        ],
        [
            0.085747831487079,
            -0.009608686238870536,
            -0.0013518752839563786,
            0.06772950644135149,
            0.06128600202368188,
            -0.012896650507662883,
            0.03048990905324507,
            -0.05221464971048576,
            -0.023365039339669595,
            -0.044459683929052765,
            0.14032532925829078,
            -0.073094678687392,
            -0.23376971395848986,
            -0.011311841776172062,
            0.03704101016381286,
            0.020521377596379967,
            0.018496418120677635
        ],
        [
            0.08880596902016406,
            0.016351976480670737,
            -0.06008551821543554,
            -0.009562246724181312,
            -0.02784058678436574,
            0.2126138049931449,
            -0.014323834233511714,
            0.0035413821984350267,
            -0.03893580956188207,
            -0.07406209301159672,
            -0.05589194712542901,
            -0.006207645329927874,
            -0.07096571286637675,
            0.06269238532516687,
            0.08258850997944295,
            -0.10295467038546532,
            -0.009547974062969061
        ],
        [
            0.11575785017798274,
            -0.041658663675613154,
            -0.06647982913710376,
            -0.03405316716046428,
            0.03176007470261485,
            0.11667170666987275,
            -0.005650251775422653,
            0.011047020296501042,
            0.06889386794652788,
            -0.0058575798235896235,
            0.029390051341373128,
            -0.10443617478210047,
            -0.13256241416831782,
            -0.0504975773069208,
            0.10007222762433166,
            -0.007901177869888185,
            -0.02468424478361729
        ],
        [
            -0.4569497776856002,
            -0.11417780639893144,
            0.2504127103027646,
            0.24425846583280517,
            0.05435547355874365,
            0.4193099834874538,
            0.17523603932265586,
            0.003270451357554519,
            -0.3494123406629497,
            -0.2781875305204524,
            0.0763886103218871,
            0.025905758457923592,
            -0.07061168773583198,
            -0.0016076565028888185,
            -0.050533268783171936,
            -0.004314414766771256,
            0.07724809543830721
        ],
        [
            0.2712844666529781,
            -0.06899555172646181,
            -0.011405639984400057,
            0.02411194024888205,
            -0.10933701289974097,
            0.14776841362804408,
            -0.007952272101423997,
            0.04098002681591851,
            0.1586127582601852,
            -0.10477582515449901,
            -0.27300982557122383,
            -0.018844090933184843,
            -0.1468838780175569,
            0.013256665705891587,
            0.10832564392451491,
            -0.018759775925615393,
            -0.0020906666246202263
        ],
        [
            0.043277452792900864,
            0.09479247104405619,
            0.13366795016130772,
            -0.01652191971746345,
            0.14516115004329833,
            -0.06476538176597883,
            -0.1585214913938896,
            -0.15892274452799635,
            0.21189056166396517,
            -0.15863917031122737,
            -0.18785065578525725,
            -0.022293301602488852,
            0.20763976720485078,
            0.0558594182998257,
            -0.07116659113883504,
            0.029011668287044427,
            -0.07600792850323207
        ],
        [
            0.10495918850365846,
            0.13238287449313157,
            -0.2249507391036375,
            -0.049157338599290536,
            0.17882315317152034,
            -0.3329055099891839,
            -0.0561756773857935,
            -0.19883775482264865,
            0.5887564094099035,
            -0.006739794974103281,
            0.10585140454933388,
            0.03811772197027169,
            0.19162872625990543,
            -0.12955816862762157,
            -0.19000654523088065,
            -0.0033173853396722915,
            -0.1475576033435152
        ],
        [
            -0.02051788697783267,
            0.06444804421338257,
            -0.059404265933988294,
            -0.0933839872107096,
            -0.0057672282497602196,
            0.004274484842533288,
            -0.14353470958008438,
            -0.17101322128549593,
            0.46250932086990665,
            0.1843000209912146,
            -0.14419135920333037,
            0.13211559380220927,
            0.17313414790382553,
            -0.016400092464589382,
            -0.09248481045355181,
            -0.16568052205239647,
            -0.10951989209613322
        ],
        [
            -0.11287305102543232,
            -0.22619649129245642,
            0.10126206003538983,
            0.09649446388282736,
            0.06799865798096212,
            0.19556237184092118,
            0.06879121554773213,
            -0.017246666689358852,
            -0.17287130744982349,
            -0.12291406675938939,
            0.03776708794237842,
            -0.014101348845005636,
            -0.05764921477091571,
            0.06935385309171758,
            -0.014006388803357155,
            0.06134928262119521,
            0.04023070323490944
        ],
        [
            -0.018088995150828662,
            0.10125717518697441,
            -0.10677120620168584,
            0.005049075571139605,
            -0.11873616988742225,
            0.272033473929611,
            -0.0668032599253995,
            0.000830054793510323,
            0.03223755344321777,
            -0.1438318008713785,
            0.008817632551561764,
            -0.05508240862874821,
            0.11847600254241551,
            0.04196977935421547,
            0.03824056788017282,
            -0.1062889092008651,
            -0.013399270805027041
        ],
        [
            0.033169648340631526,
            -0.07846430794614141,
            -0.01646498859481939,
            -0.01697150736487128,
            0.01846987430808113,
            0.09541063472135423,
            -0.01168967792607777,
            0.08246560170438236,
            -0.022400819339177074,
            -0.009625125974459197,
            0.016346276200844105,
            -0.05257398985561772,
            -0.10171867630354546,
            0.016197042162767707,
            0.057136486075413245,
            0.001749144547816243,
            -0.010257156831809345
        ],
        [
            -0.3119059042645501,
            -0.05588183394769011,
            0.37971014353961763,
            0.2305010980031024,
            -0.0021915349724117646,
            0.31274647763052615,
            0.1501956059027573,
            -0.0428284555623383,
            -0.17098521857187282,
            -0.46473313050566806,
            -0.11391267324647837,
            -0.014087614043033774,
            -0.01645322204341809,
            0.06331066260936617,
            -0.0032324836020595268,
            -0.05727483670894141,
            0.11038492745271683
        ],
        [
            0.13438761415798628,
            0.17790763699569787,
            -0.11088875947694381,
            -0.006839568350219265,
            -0.12423952338325032,
            0.26793878550546146,
            0.009901467606574947,
            0.036402945035293226,
            0.009692960241633882,
            -0.046390094002548815,
            -0.22445849513737579,
            -0.05907839842812427,
            -0.16131887180072219,
            0.06340775989804505,
            0.05405487553618328,
            -0.0012606775751437568,
            -0.019844167490323184
        ],
        [
            0.09740557594476801,
            0.09671411136526503,
            0.0339793837768407,
            0.0430902485357132,
            0.2243694043301315,
            -0.2282044863575206,
            -0.10745081546509194,
            -0.14888820486035884,
            0.28105089185782756,
            -0.17944736051600463,
            -0.1616345057145789,
            -0.029306333916613973,
            0.08436027379450375,
            0.06861510045852014,
            -0.03911198243232067,
            0.02146886224458176,
            -0.06133383703665009
        ],
        [
            0.0010631166136408144,
            0.22840110554301812,
            0.19480335829342263,
            -0.0854354018885621,
            0.2148355618250377,
            -0.1460080370984612,
            -0.19904073401699948,
            -0.009456295226166136,
            -0.16473795569557242,
            0.08553030355410428,
            0.04464132464386645,
            0.12052675373715742,
            0.14772285898177323,
            -0.17395219113252725,
            -0.12290206325701827,
            -0.006070353588565076,
            -0.13338379569346265
        ],
        [
            -0.01284468680950061,
            0.045949271488470826,
            0.03849311186620576,
            -0.09198887646714264,
            0.20581959378158438,
            -0.1906626816682911,
            -0.1452932349929987,
            -0.0698234661586235,
            0.3031627861632008,
            0.07616957818217399,
            0.03851756858252229,
            0.1553380255012397,
            0.012925530523305147,
            -0.06648815390796249,
            -0.09247580199912257,
            -0.1483084678374225,
            -0.05866236112783759
        ],
        [
            -0.1745757846261771,
            -0.12657823739852814,
            0.18710091690081881,
            0.04393589807902312,
            -0.003804981792536987,
            0.27842696215906076,
            0.06761888998089498,
            0.0022259705228142145,
            -0.20183388249040443,
            -0.06130028090094015,
            -0.005962997034407125,
            -0.0014991601586569318,
            -0.1310056868159765,
            0.04354493767035863,
            0.01976958816584915,
            -0.011644506186515167,
            0.07530626117304086
        ],
        [
            0.022792467660323328,
            -0.09198020082450539,
            -0.11291084968258938,
            -0.01980757090418284,
            0.009626459899190391,
            0.10653660999494172,
            -0.10195162080207129,
            -0.07354662080638368,
            0.34600247589045907,
            -0.04746120861821919,
            -0.06646906347834405,
            0.024030402893008406,
            0.0665435527476314,
            0.04026962361979467,
            -0.005725598771734079,
            -0.10533689756458632,
            0.004355802276786663
        ],
        [
            0.07800029032183878,
            -0.03550738138637255,
            0.045264937809712295,
            -0.07262687237604322,
            -0.027516958671893566,
            0.16904419419567335,
            -0.044548979315100434,
            0.08672552743177976,
            -0.008936805019019504,
            -0.05610112927805257,
            0.07295978402803868,
            -0.04944938384856734,
            -0.15677411548145437,
            -0.0426031385657295,
            0.029987109500149982,
            -0.008995912968289914,
            0.018396629034961552
        ],
        [
            -0.19316095336280834,
            -0.013161439298466549,
            0.19144450881806996,
            0.17541550808227008,
            0.07730909622120838,
            0.2120075670641524,
            0.11419886153962938,
            -0.10712695630691739,
            0.07549085057567784,
            -0.42763245256296983,
            -0.1823796750260974,
            -0.14321410710308158,
            0.08672630319638529,
            0.11265046260837913,
            0.007842994801780826,
            -0.09419761007313728,
            0.10078925991849629
        ],
        [
            0.20083372520371454,
            -0.014988929776459704,
            -0.11170288917849049,
            -0.013484926414374585,
            -0.07938299957082431,
            0.04175020303752692,
            -0.02694029359826212,
            0.05951750172171205,
            0.0984609561453001,
            0.11739963628228482,
            -0.1815453557444133,
            -0.01296937866835969,
            -0.15539333277089662,
            0.07545971711592224,
            0.03785042611405748,
            -0.03289585187388066,
            -0.009431078465051639
        ],
        [
            -0.02282276607629077,
            0.13357238837240895,
            0.17689514971705453,
            0.12133420758227954,
            0.05470222311901851,
